9 100
eng:the 0.123988 -0.0562252 -0.0319059 0.0576059 0.0626291 0.198081 -0.0235254 -0.145559 -0.0577731 0.0256338 -0.00594399 -0.0600742 -0.0889448 0.00614838 0.0356852 0.0429833 -0.019374 -0.0683709 0.121629 0.00311425 -0.0794253 0.0769896 0.104138 0.0038685 0.0427331 -0.11651 -0.105978 0.139347 -0.0184563 -0.0133175 0.0144859 0.0115573 -0.121794 0.0303033 -0.0688353 -0.102835 0.0349014 -0.0732021 -0.0830482 0.113885 0.0717644 -0.0255524 0.081024 -0.126613 0.128731 -0.138583 -0.0805904 0.00561392 0.0650577 0.0582066 -0.151998 0.179356 -0.0173831 0.00482438 -0.154728 -0.0156656 0.0653595 -0.080049 0.0163503 0.109479 0.186512 -0.0368287 0.0763869 -0.105453 0.0644909 -0.107909 0.0296689 0.0994464 -0.0709763 0.0741907 0.133675 -0.0131324 -0.0918204 0.0276789 -0.0829618 -0.00431342 0.0702623 0.0644326 0.0289854 0.0138216 0.0355465 0.0976574 0.0121276 -0.0880291 -0.0685371 -0.044462 -0.0135461 -0.0649227 0.0202709 0.0575553 -0.0712826 -0.107621 0.0288385 0.052141 0.122536 -0.0276403 -0.0627941 -0.0466577 0.028216 -0.121846
eng:, 0.0430563 -0.0214423 -0.0511858 -0.0178508 0.0408386 0.0184886 0.105509 -0.0631339 -0.0683304 0.0755923 -0.0205163 0.0912196 0.00539198 -0.102704 0.0603797 0.0903291 0.0904758 -0.120046 0.108969 0.0812095 0.0794298 -0.103281 0.0721335 -0.199832 0.0691459 -0.0562074 -0.164823 0.188737 0.0702654 0.102364 0.0658333 0.114144 -0.0853362 -0.143798 0.0654476 0.0416804 0.0412425 0.0112015 -0.139708 0.0305614 -0.0643831 0.0170022 -0.0500226 0.00618365 -0.0835385 -0.0162819 -0.0836226 -0.0485709 0.0549633 0.0860933 0.0222358 0.0875608 -0.0841893 0.106246 -0.0150883 0.0516634 0.0408465 -0.108651 -0.0210919 0.0897009 0.0511002 -0.0219485 0.0168787 -0.0638846 0.0106363 -0.0920429 0.0163517 -0.052184 -0.0290986 -0.0253965 0.101136 0.00125546 0.0310292 -0.0323038 0.0904008 0.113724 0.053911 0.0177141 0.0104201 0.0513804 -0.00480462 -0.117804 0.0524473 0.0524326 0.0705093 0.147908 -0.094222 0.0671248 0.138288 -0.0333371 0.012158 -0.0109889 0.00689685 -0.00268128 0.053298 -0.00195389 0.0999526 0.0070277 -0.180544 -0.0537789
eng:. 0.14732 -0.107424 -0.106607 0.084295 0.0502275 0.0880093 0.0917514 -0.0798066 -0.112603 0.14108 0.000136674 0.0267694 -0.0375416 -0.14457 0.0306203 0.0579728 0.0684964 -0.0322033 0.160266 0.0695292 0.112802 0.0235308 0.0535884 -0.0178466 0.0959635 -0.0760857 -0.0938059 0.16524 0.0604678 -0.0413514 0.119115 0.0993277 -0.0429984 -0.159537 0.0268578 0.16057 0.0261254 -0.123793 -0.0135543 -0.0110527 -0.0636826 0.0585842 -0.0380954 -0.00438243 0.0335655 0.0682019 -0.0339881 0.135045 0.184892 0.0434284 0.0152191 0.0293544 -0.110538 0.119837 -0.0741392 0.0792675 -0.0256146 0.0490329 -0.00057282 0.169429 0.0834802 -0.0768899 -0.0549616 -0.00849155 0.0411148 -0.136514 0.0222927 0.0388154 -0.0145052 0.124475 0.213614 0.0265169 -0.0701269 0.0557123 -0.0112413 -0.022129 0.123387 -0.0176707 0.146019 -0.0297493 0.0855608 -0.126639 0.0624236 -0.00493008 0.0716983 0.102133 -0.110773 0.0266418 0.0838313 -0.0220983 -0.000699813 -0.140159 0.0284458 0.0299346 0.0655787 0.0718077 0.0382743 -0.134313 -0.123887 -0.0134626
eng:to 0.132175 -0.00322895 -0.112764 0.125063 -0.070232 -0.00199556 -0.159765 -0.0584357 -0.0998805 -0.0445425 0.0650304 -0.00533134 0.0276879 0.00632308 -0.0864608 0.126114 -0.0311983 0.0802266 0.109616 0.218615 -0.029372 -0.0671221 0.0611235 0.0674358 0.0165428 -0.113692 -0.224042 0.151417 0.0312328 0.0328832 0.0243918 -0.0204668 -0.101987 0.0512948 0.0650501 0.0113334 0.0885561 -0.000243654 -0.0784426 -0.0018846 0.0581773 -0.00645207 -0.0775943 -0.0237615 0.0169878 0.059184 -0.105662 -0.0132777 -0.0361255 0.0814293 -0.00896572 -0.0496177 -0.056205 0.0827082 -0.00138419 0.150854 -0.092594 -0.0825766 -0.180957 0.0988815 0.10341 -0.0603067 -0.00480761 -0.110834 -0.0793749 0.00869474 -0.00618844 0.147542 0.0818857 0.113195 0.116222 -0.0312905 -0.0416953 -0.00346377 0.041909 0.0887148 0.037712 0.0994384 0.128415 -0.0547379 -0.0881249 0.0759913 0.0433646 -0.108219 -0.0132124 0.057215 -0.145154 0.0220415 0.108186 -0.109171 -0.0517616 -0.208087 0.163927 -0.0798274 0.0710511 0.122565 -0.000384028 0.0895941 0.0904424 0.00239869
eng:of 0.0818065 0.018626 0.0384046 0.0196199 0.119298 0.122413 -0.0262002 -0.0348485 -0.128824 0.103575 -0.211081 -0.0073324 -0.108266 -0.164836 0.159581 0.0176129 0.0445798 -0.003613 0.184335 -0.0622061 -0.110366 0.0406061 0.106878 -0.0452336 0.02564 -0.0556572 -0.0431371 -0.029031 -0.0136135 0.090002 0.0363675 0.0847324 -0.208736 0.116453 0.0568919 0.147067 0.108623 -0.163204 -0.0213853 0.088476 -0.0520092 0.0398744 -0.0225076 -0.128385 -0.00129213 -0.0288099 -0.0216319 0.0456083 -0.0155083 -0.0169478 -0.0302593 0.056699 0.0683052 -0.0805966 0.059778 0.0346034 -0.153449 -0.0661001 -0.094206 0.127125 0.179758 0.0301623 0.115229 0.0903342 0.00548064 0.0975656 -0.0478275 0.0729036 0.0202433 0.0513899 0.0313031 -0.120458 -0.0322153 0.0823743 0.000411482 0.129432 0.12701 0.101862 0.0411666 0.0745106 0.0869225 0.0564491 0.004885 -0.0793088 -0.0365298 -0.00482787 -0.112162 -0.0377382 0.0151828 0.104902 -0.114529 -0.0429115 0.151841 -0.12686 0.140819 -0.0585049 -0.000878555 -0.00781011 -0.0526852 0.0672956
eng:a 0.124737 -0.10419 0.0443727 -0.000836324 0.0144184 0.100187 -0.0336065 -0.0769751 -0.129616 0.0685876 0.116105 -0.0419363 -0.110927 0.0808921 0.0148417 0.0246123 -0.0197633 -0.180985 0.0875406 -0.00179289 -0.000406651 -0.148434 -0.0695837 0.0785198 0.0521165 -0.0014445 -0.207168 0.101433 -0.031661 0.112294 0.114121 -0.00274309 0.0633717 0.0898912 -0.0776369 0.00167058 0.0267813 -0.0426436 -0.0847092 0.0844072 0.0727865 -0.0540849 0.0519487 -0.0100696 -0.0693917 -0.142676 -0.0178892 0.0837327 0.118943 0.108119 -0.210767 -0.0556235 0.103635 -0.0207366 -0.0235219 0.101675 -0.0891344 -0.0307759 -0.0830294 0.0989619 0.161707 -0.0728356 0.00948869 -0.0737747 0.0106457 -0.0380866 0.0466983 0.0926253 -0.0574868 -0.0353134 0.0601147 -0.0723264 -0.162997 0.0561921 0.120016 -0.152952 0.0222995 0.037893 -0.0554704 -0.0029871 -0.0165974 0.0162678 -0.154497 -0.0809462 -0.136802 0.0646421 -0.173909 -0.015722 0.0567321 0.0208424 0.0672876 -0.0470765 -0.0394353 0.026012 -0.0457935 -0.0679918 -0.124878 -0.147692 -0.122523 -0.122593
eng:and 0.178684 0.0265374 -0.0279904 0.199279 0.0271865 -0.00655105 0.0343092 -0.149058 -0.158587 -0.0380614 -0.083513 0.045848 -0.0666619 -0.0725965 0.0778858 0.043336 -0.0179465 -0.0383727 0.0504475 0.0886152 -0.04902 -0.104966 0.0179475 0.025057 0.00265984 -0.0663488 -0.0344622 0.0735724 0.0560349 0.0519986 0.0172874 0.0417357 -0.211784 -0.0191527 -0.0113797 0.147582 0.0935557 -0.0603573 -0.101584 0.0241822 -0.0845624 0.028772 -0.0832725 -0.0127438 -0.0432458 0.0243386 -0.193119 -0.0568005 0.0747495 0.186134 0.0535526 -0.0954926 -0.0587783 0.0256304 -0.0427463 0.156027 0.026108 -0.0236863 -0.0418718 0.0843638 0.0578189 -0.0857502 0.133231 0.0733999 -0.0842913 -0.0505245 0.00672226 0.0100963 0.0873454 0.0225482 0.0875653 0.000429046 -0.0620893 0.106346 0.0295266 0.168062 0.122367 -0.0553384 0.0995476 -0.0374508 0.0642093 -0.0717352 0.0489617 -0.0784229 0.0973559 0.0487852 -0.0857188 0.026089 -0.0290993 0.032933 -0.0132356 -0.117723 0.0390038 0.0465694 0.0955826 0.117081 0.031202 -0.0309653 0.0804044 -0.0763692
eng:in 0.179535 -0.0623593 -0.0475184 0.0637175 0.0821224 0.160939 0.0383243 -0.0412178 -0.136585 0.0897607 -0.109038 -0.0304261 -0.0651995 0.109461 0.0383545 0.0680165 0.149951 0.0886917 0.0810763 -0.0154019 0.0782948 0.0671299 0.118728 -0.206086 0.0280624 -0.139128 -0.133013 0.0702085 0.0345565 0.114551 0.0211155 0.0260261 -0.189857 0.073583 -0.018416 0.182663 0.0903755 0.00953572 0.106034 0.0566041 0.0816377 -0.0158286 -0.0413813 0.0862989 -0.0149638 0.0153132 0.0406306 0.0461831 0.031365 0.0845142 -0.0834646 0.0339755 0.100786 0.0353052 -0.0866807 0.115186 -0.139123 -0.00675615 -0.0879425 0.0775029 0.139702 0.0485156 -0.110751 -0.104038 -0.10792 0.100436 0.048466 0.0191671 -0.0994323 0.0229011 0.12491 0.0591996 -0.0317072 -0.0004982 -0.0568531 0.106977 0.0360684 0.0686769 0.100332 0.0714537 0.104081 -0.0114651 0.123611 -0.00939671 -0.0255667 0.0876454 -0.0321026 -0.030162 0.0891416 0.123055 0.142955 -0.0699904 0.0526704 -0.0100755 -0.00990386 -0.0496187 0.122735 0.0394014 -0.0316707 -0.136201
eng:'' 0.0143904 0.0501238 -0.153028 0.0603135 -0.0104162 0.0303487 0.0375624 -0.0226955 -0.210022 0.0278266 -0.0413468 0.086814 -0.0596926 -0.0783724 0.104516 0.0735985 -0.0593257 0.0324855 0.00199055 0.0795367 0.0191364 -0.155736 0.100399 0.102276 0.0365904 -0.0601061 0.0176319 -0.0457716 -0.036112 0.15063 0.00916406 0.170868 -0.028662 -0.0641896 0.0531922 0.021226 0.0356016 -0.100214 0.111015 0.134534 -0.173058 -0.0906764 0.0304478 -0.0269085 0.0396264 0.0106462 -0.139529 0.0155275 0.000595658 0.0172487 -0.128512 -0.051988 0.0228478 0.140821 0.0123689 0.064114 0.0470122 0.0127725 -0.118864 0.0499297 -0.0363149 -0.0194558 -0.00645626 -0.00306212 -0.00806549 -0.0145197 0.0268439 -0.0492106 -0.11217 0.0217199 0.112628 0.0843582 -0.0708819 0.063608 0.10439 0.0929579 -0.0596326 0.139066 -0.000131877 -0.0594906 -0.0790005 -0.00231005 -0.0514701 0.0155982 0.000551509 0.166631 0.0459893 -0.0342613 0.113434 0.0502736 -0.0175662 -0.398054 0.078223 -0.0499881 0.0426804 -0.044512 -0.192279 -0.0379225 -0.0112235 -0.162961
